-3.891521,-10.942653,-0.455351,0.129017,-0.074847,-16.966503,0.115436,0.095721,-0.153554,-11.243659,-8.515036,0.093188,-23.658352,0.213126,-0.162282,0.128742,-24.745907,-19.679033,-11.068165,-15.491880,0.055925,0.267235,0.276910,0.209677,-18.545719,0.245994,-8.841189,0.163381,-20.421143,-0.046403,0.202628,0.448302,-0.028733,-13.575144,-0.325220,0.395169,-5.707553,-0.434935,0.191275,0.401639,0.293939,-2.220580,0.130818,-6.809017,0.093738,-3.041441,0.250725,-2.653894,0.310572,-2.207303,0.331355,-0.422666,0.079577,0.440031,0.445677,-0.333094,-0.177358,-4.134536,-8.586726,-30.936921,0.455443,-0.130696,-0.477721,-0.045701,-4.223796,0.470916,-6.849808,-47.308328,0.138966,-19.611189,-8.026797,0.157186,-32.078916,-0.101764,-3.518316,-0.084124,-16.193186,-12.441271,-5.451570,0.443968,-0.086047,-20.338754,-0.213187,0.477813,-7.133855,-1.652672
-10.610841,-30.192928,0.432554,0.291864,-0.396329,-46.667822,0.024613,0.242058,-0.303705,-30.484028,-22.486892,-0.047868,-64.270871,0.473327,-0.483795,0.450926,-68.995190,-53.308917,-29.607127,-42.355814,0.490570,0.442076,-0.488006,0.456023,-49.127139,0.161184,-23.398050,0.463958,-57.260115,0.196219,0.359127,-0.165761,0.107257,-36.554389,-0.064074,-0.249382,-16.542160,0.263359,-0.015152,-0.179220,0.247124,-6.801344,0.264153,-17.882612,0.007492,-7.854465,0.021531,-5.982357,0.155110,-4.315509,0.060503,-0.059008,-0.258477,0.331843,-0.068346,-0.399716,-0.416837,-11.683815,-22.767840,-84.623979,-0.360012,-0.351833,0.132710,0.279565,-12.597138,-0.127949,-19.641499,-128.854218,0.106189,-52.791699,-20.494796,-0.410337,-87.446757,0.041612,-9.249330,-0.442961,-43.027713,-33.179014,-16.528604,-0.068133,-0.197378,-55.953734,0.427702,0.180563,-20.813362,-4.854393
-8.624089,-23.258801,-0.133503,0.022965,-0.153249,-36.841348,-0.053423,-0.077868,0.081561,-24.310771,-18.252788,-0.389828,-50.875989,0.100818,-0.089648,-0.151784,-53.708446,-42.187225,-23.400032,-33.218659,0.426939,0.152882,-0.102680,0.065813,-38.256364,-0.357143,-18.090557,-0.139271,-44.298881,0.302423,-0.102863,0.125385,0.109729,-29.055203,0.331477,-0.218802,-13.610209,-0.252190,0.159230,-0.397244,-0.094317,-4.788263,0.421903,-14.710676,-0.147816,-5.668502,-0.182211,-5.308383,0.347041,-3.210546,-0.497070,-0.047868,-0.135609,-0.334468,-0.483245,-0.008805,-0.290918,-9.324483,-18.220166,-65.994705,-0.120014,-0.244652,0.034898,-0.194143,-9.945408,-0.138813,-15.609831,-100.942466,0.220237,-41.903703,-16.259946,0.095599,-68.456970,-0.400876,-7.397171,0.388730,-33.787510,-25.888279,-12.585245,-0.061815,0.187704,-43.934910,-0.143056,0.317286,-15.583348,-3.772988
0.282922,0.234397,-0.382962,0.230644,-0.099628,-0.127094,0.499298,0.381436,0.411924,0.340266,-0.216330,-18574.790880,0.237571,0.358882,-123479.878496,-16732.150051,-0.296319,0.054552,-0.151204,-0.233024,0.203269,-1487981815.536988,-14630.948921,0.234397,0.480834,0.021287,-0.438780,0.116047,0.042863,0.033952,-0.440947,-3171170157.974428,-0.307245,0.464690,0.328028,-0.166494,-5348509315.673028,-0.297388,-0.387326,0.370510,0.041002,0.313898,0.339381,-0.393094,0.397580,0.107746,0.088763,-0.306024,0.103870,0.328272,-97950.867521,-29910.907540,-0.149281,-0.029466,-0.038347,-0.335017,0.461791,0.222190,-0.477416,-0.246666,0.303858,0.029740,-0.198538,0.233818,-0.177999,-0.209891,0.115925,-0.441984,-18081.382764,0.166829,-0.101032,-0.225578,0.143849,0.031571,-157656921.495118,-0.467925,-2234276389.045610,-0.469359,-226574031.076237,-18413443.859668,-0.236564,0.276238,0.296136,0.169637,0.287133,-15542.406162
-0.288507,0.208609,-0.327723,-0.275689,0.035234,0.125050,-0.415860,0.434141,-0.409116,-0.221244,0.393124,0.351497,-0.471435,-0.431089,0.332606,-0.415677,0.404324,-0.190603,-0.151448,-0.397427,-0.300562,-0.220603,0.431516,0.101367,-0.034654,0.399533,0.073473,0.489288,-0.407193,-0.467772,0.350215,0.001724,0.206778,-0.092090,0.128040,0.439177,-0.314508,-0.324549,-0.103992,-0.469573,-0.194510,-0.421842,-0.277123,-0.079058,-0.489227,-0.245567,-0.160878,-0.213950,-0.192404,0.163594,-0.156026,0.069292,0.283715,-0.363308,-0.462462,0.345668,0.253227,-0.447752,0.377712,0.309870,-0.474120,0.137135,-0.437742,-0.110248,-0.198263,0.392087,-0.264153,-0.015610,-0.309412,-0.357204,0.322138,-0.172506,0.356624,-0.284387,0.480621,-0.024400,-0.212241,-0.261834,-0.311151,-0.078570,-0.309534,-0.434690,-0.050523,0.332209,0.008957,-0.170186
0.150746,-0.273125,-0.307093,0.433775,0.311304,0.297876,-0.495544,-1010.436704,0.158559,-90946.089210,0.438841,-0.136952,0.011673,0.268731,-0.122333,-0.277856,-0.402738,-594637.933677,0.190298,-250757.350440,0.490661,-28.437891,0.237205,-0.217612,-0.317713,0.272576,-302457.818848,0.023850,0.269250,-0.071184,0.331080,-473.146227,0.271508,0.489654,-0.159047,0.250053,-81587.004026,-0.440977,-0.106281,-0.251518,-0.009507,-0.417020,-0.259819,-352082.121075,0.459777,0.447050,-0.229087,0.436216,0.357326,0.198904,-0.104877,0.120380,-0.060869,-0.103717,0.044694,-0.027726,-0.092364,-0.420682,-0.197134,-0.104083,0.103015,0.368496,0.158406,-0.278741,-538270.453099,-0.313044,-250594.248527,-0.010727,0.247826,-0.391446,-479059.174628,-0.137837,-0.460601,0.330195,-96986.315054,-424.948640,-136819.548355,-0.230399,-7309.119666,-631.042554,-0.094867,0.288079,0.121296,-0.336390,0.441282,-161.571082
0.094958,-0.201987,0.251335,-0.387631,0.237419,-0.325037,-0.492798,0.009659,-0.202506,0.090106,-0.422422,-29832.178977,-0.491028,-0.168844,-198313.160319,-26871.553181,0.008560,0.167959,-0.241295,-0.102039,-0.488342,-2389752614.727662,-23498.451336,0.193747,0.113269,0.485290,0.170583,-0.257958,-0.286370,-0.346034,-0.229575,-5093013971.915677,-0.430906,-0.166250,0.417600,-0.312677,-8589899411.157780,0.060137,-0.478851,0.238426,-0.469298,-0.032060,-0.042344,-0.485778,-0.363033,-0.001816,0.309290,0.413205,0.475097,0.230277,-157312.416839,-48038.379624,0.218497,-0.161122,0.419889,0.262047,-0.173574,0.176077,-0.233787,-0.469634,-0.030381,0.478362,0.054033,0.472686,-0.418790,0.198569,-0.156850,-0.248863,-29039.642983,-0.036882,-0.046190,0.289331,-0.066729,0.153859,-253202718.212744,0.166646,-3588328692.510229,0.115162,-363886089.469597,-29572657.033791,-0.101459,-0.014054,-0.422880,-0.222007,0.334651,-24960.968163
-0.334681,0.360378,-0.322352,0.020280,0.306940,0.307550,-0.157979,-2222.660355,0.387661,-200130.924036,0.139790,0.313623,-0.368007,-0.297143,0.483520,-0.435972,-0.319391,-1308524.965971,-0.077410,-551800.933127,0.063005,-62.960198,0.178457,0.195425,0.295038,0.286676,-665570.711138,0.267693,0.101703,0.465758,0.472076,-1042.095776,-0.235191,-0.437590,-0.120991,0.005570,-179535.063708,-0.072924,-0.213523,0.123005,-0.467833,-0.262597,-0.321802,-774772.272865,-0.137318,0.377255,-0.454161,0.080432,0.072466,-0.059435,0.299158,-0.296991,-0.183035,-0.139760,0.301202,-0.142140,0.019272,-0.337855,0.028306,0.470244,0.092914,-0.156117,-0.144490,0.048570,-1184486.947324,-0.121235,-551443.952085,-0.249168,0.170827,0.344783,-1054189.353930,-0.424039,0.207755,0.178365,-213422.508981,-935.785799,-301077.608663,0.053392,-16084.958450,-1387.746086,-0.367458,-0.114887,-0.304346,-0.088977,-0.368038,-354.068052
-0.321833,-0.115436,-0.293329,-0.128803,-0.277734,0.266076,0.405698,-4084.912041,-0.001999,-367744.713971,-0.400815,0.092578,-0.445585,0.277306,0.334651,-0.157033,-0.182730,-2404442.606096,0.373928,-1013946.223661,-0.329249,-116.154979,-0.411985,0.185781,0.164907,0.258812,-1223001.078014,0.212149,-0.152699,0.373012,0.311518,-1914.037405,-0.279687,-0.493011,0.408597,-0.058824,-329898.974244,0.238548,0.019883,-0.453734,0.438231,-0.211570,0.354366,-1423659.715884,-0.075396,-0.115894,0.222098,-0.357112,0.173727,0.247581,-0.195975,-0.205588,-0.308130,-0.290979,0.046251,0.252678,0.307398,-0.055132,-0.320338,-0.441893,-0.497620,-0.158864,-0.135456,-0.373074,-2176520.399323,0.481780,-1013289.598998,-0.448424,0.196646,-0.238212,-1937096.403873,0.026841,-0.331812,-0.374233,-392168.927703,-1718.538534,-553235.961660,-0.069109,-29555.747498,-2549.331401,-0.091662,-0.064623,0.182241,0.176778,-0.337336,-651.039393
0.168477,-0.437529,0.357204,-0.122547,-0.397916,-0.121998,-0.281030,-586.357630,-0.180990,-52812.100566,0.038316,0.416776,0.003983,-0.114673,-0.182577,0.102252,-0.163015,-345303.985382,0.040086,-145613.602714,0.247185,-16.855265,-0.012009,-0.379208,0.291742,-0.371090,-175636.033587,-0.371426,0.159841,0.210990,0.449919,-274.591979,0.301477,-0.459227,0.114917,-0.378964,-47377.363880,-0.001389,0.315058,0.124928,0.158223,-0.339961,0.442961,-204453.318626,-0.012162,-0.293603,-0.287225,-0.313807,0.452818,-0.040361,-0.148518,-0.259819,-0.383908,-0.457366,-0.084796,0.288690,0.199942,-0.335627,0.230705,-0.239036,-0.410245,-0.469970,0.461821,0.084460,-312572.025581,0.376186,-145519.641633,0.282373,-0.456420,-0.369167,-278187.756474,0.196371,-0.020341,0.198782,-56319.446230,-246.523909,-79450.793046,-0.128376,-4244.683801,-366.318721,0.285760,-0.137074,-0.204825,-0.394772,-0.262444,-93.086948
-0.490875,-0.375637,-0.291833,0.333460,0.092486,-0.088885,0.140889,-391.392899,-0.483520,-35245.884696,0.002792,-0.418302,0.230827,-0.132282,-0.146321,0.391110,0.324427,-230446.592002,-0.066301,-97178.991425,0.263695,-10.727952,-0.286035,0.421110,0.256035,-0.087634,-117214.776447,-0.312250,0.237877,-0.244346,0.095202,-183.565710,0.488067,-0.441130,-0.499084,0.148396,-31618.289532,-0.158467,-0.306940,0.104968,-0.324366,0.161855,0.434935,-136446.050721,0.152333,-0.113819,0.150533,-0.405942,-0.422514,-0.416257,-0.149464,0.207389,0.016282,0.046007,-0.317133,-0.282006,-0.319178,-0.068773,0.108570,-0.314081,-0.081194,0.034043,-0.297449,0.301599,-208602.245122,0.179983,-97116.151431,-0.407071,0.486785,-0.255028,-185654.712779,0.257561,-0.166616,-0.200125,-37585.961336,-164.626981,-53023.066308,-0.119892,-2833.085703,-244.154764,0.124592,0.380001,0.440916,0.482147,-0.293390,-62.863983
-0.162124,-1.291105,-0.297754,-0.414457,0.209922,-2.503143,0.166341,-0.256645,0.092486,-1.541126,-1.502903,-0.187429,-3.400277,-0.399899,0.011185,-0.240532,-3.008496,-2.772577,-1.189186,-1.624367,-0.357509,0.125141,-0.177755,0.232871,-2.149091,-0.379666,-1.239471,-0.089709,-2.217213,0.232353,0.385464,0.149953,-0.180715,-1.253001,0.157430,0.284936,-0.408897,-0.176443,-0.480071,-0.266625,-0.384152,-0.074512,0.358974,-1.227808,-0.206839,-0.485040,0.203055,-0.734648,-0.313837,-0.270497,0.446165,0.499420,0.337825,-0.408933,-0.304743,-0.278314,-0.025224,-0.603891,-0.839710,-3.968492,0.042558,0.471526,-0.334651,-0.121418,-0.204216,0.015976,-1.369001,-6.128871,0.433073,-1.996377,-0.654572,0.455870,-4.320593,0.338435,-0.181432,-0.110126,-2.360496,-1.367657,-1.253813,-0.267144,0.438383,-2.822478,0.442106,0.346706,-1.326375,-0.360425
-6.477956,-16.567070,0.215110,0.335688,-0.342341,-26.984654,-0.412961,-0.456420,0.409543,-17.052336,-12.661116,0.028123,-36.432978,-0.433226,0.079363,0.144490,-38.729780,-29.864399,-16.870459,-23.976441,-0.275658,0.006424,-0.053117,0.073138,-27.794199,0.102161,-13.594472,-0.434385,-31.864170,0.110248,0.113117,-0.098254,-0.390835,-20.519544,0.255669,-0.038743,-9.482932,0.203879,0.402005,0.493530,0.242943,-3.699374,0.367061,-10.040745,0.377316,-4.021299,0.162709,-3.997332,0.306085,-2.601627,0.329768,0.221641,0.185568,0.086688,-0.105029,-0.375729,-0.254021,-6.387696,-13.050586,-47.663858,0.185904,-0.174123,-0.126179,-0.030229,-7.153649,0.140278,-10.833956,-72.828812,-0.417478,-30.209081,-11.872975,-0.058702,-49.501854,0.290490,-4.581374,0.036546,-24.591378,-18.870983,-8.815082,0.232170,0.275323,-31.495686,-0.052812,-0.178640,-11.929775,-2.636934
-0.695357,-3.284592,-0.217399,-0.034074,-0.283624,-4.943901,0.221824,-0.197928,-0.327631,-3.258879,-1.822954,-0.099292,-6.484259,0.067522,-0.265191,0.434690,-6.417874,-5.134775,-2.571154,-3.931834,-0.186270,0.462065,-0.199637,0.484832,-4.496095,0.497345,-2.581141,-0.437895,-5.028914,0.132099,-0.195761,-0.357753,0.019181,-3.433493,-0.275933,0.449461,-2.071786,0.007096,0.431028,-0.276360,-0.257347,-0.555276,0.062212,-1.880591,-0.123981,-1.016241,-0.210868,-0.823951,-0.073412,-0.693117,-0.178579,-0.277520,-0.430113,-0.181661,-0.464171,0.309809,0.384915,-1.151659,-2.499539,-8.415129,0.170522,-0.282952,0.002243,0.207694,-0.787040,0.247063,-1.627189,-12.587108,-0.278649,-5.133668,-1.678971,0.065783,-8.720489,0.451506,-1.150918,0.217093,-4.256560,-2.815444,-2.025142,0.210532,0.122486,-4.996556,0.434629,0.029557,-1.791834,-0.327337
-5.200376,-14.835557,0.488098,-0.266289,0.427732,-22.773026,-0.037767,0.333888,-0.305628,-14.597130,-10.876813,0.494354,-32.119601,0.186789,0.242576,-0.018204,-34.212127,-25.680059,-14.350706,-20.893102,0.071429,-0.410733,0.330592,-0.325587,-24.227972,0.316797,-11.276202,0.391598,-27.699468,-0.138905,-0.399747,0.123829,-0.440825,-17.855247,-0.369503,-0.391415,-7.836284,0.495148,-0.470977,-0.338801,0.428373,-3.066756,0.138295,-8.749110,-0.186575,-4.003625,0.322871,-3.294151,0.170675,-2.340011,-0.042375,0.330195,0.039842,-0.364528,-0.458800,0.170492,0.375423,-5.497790,-10.887729,-41.235165,-0.402738,-0.183096,-0.277917,-0.474517,-5.693482,-0.141682,-9.845140,-64.021291,0.386532,-26.084304,-10.134247,-0.015275,-42.840438,0.256188,-4.088173,0.332881,-20.768056,-16.516469,-8.168926,0.350124,-0.071795,-28.167638,-0.122181,0.496094,-9.790839,-2.698761
-6.457994,-18.426241,0.469481,0.053758,-0.148549,-29.656157,0.300470,0.462615,0.338893,-18.592516,-14.162556,0.272179,-40.408376,-0.006699,-0.365719,0.327021,-42.391490,-33.079103,-19.107699,-26.296940,-0.371517,-0.152242,-0.351039,-0.334803,-30.409392,-0.236991,-14.233732,-0.173391,-35.260479,-0.493225,-0.370998,-0.002792,-0.197562,-23.012527,-0.327052,0.233970,-10.459204,-0.351924,-0.451781,-0.014359,0.333705,-3.963328,-0.034257,-11.280111,-0.360652,-4.404030,0.195090,-4.432061,-0.017685,-3.353137,0.099780,0.337916,0.043992,-0.354671,0.297327,0.045274,-0.113239,-7.389480,-13.878808,-52.936129,-0.198263,-0.211570,-0.352748,0.279626,-7.258898,-0.382260,-12.084891,-80.077857,0.116504,-32.711453,-12.603144,-0.253319,-54.992037,0.460936,-6.074851,-0.043870,-26.779859,-20.540130,-9.707014,-0.303003,-0.294794,-34.661930,-0.408963,0.359828,-12.428859,-3.589595
-0.395260,-0.013901,-0.233604,-0.074084,-0.253655,-0.028825,-0.373714,0.466033,0.347468,0.064806,-0.080920,-430003443388.969910,0.277581,0.494415,0.202078,-412542686057.570740,0.192984,-0.357662,-0.280267,-0.269494,-0.256279,0.284265,-0.076800,0.013749,0.405698,0.452116,-0.385189,-72287.149575,-0.062517,-0.077319,-0.282403,-25662724247.627895,0.462737,0.330836,-0.330103,-0.372982,0.176840,-0.092334,0.444823,0.038011,-0.320795,-0.156087,0.194723,-0.030107,-0.069781,0.278191,-0.479064,0.444945,-0.166829,-0.089801,-980935280750.650020,-0.162557,0.441435,0.239189,-0.456145,-0.075182,-0.209586,0.427061,-0.136860,-0.436949,0.354671,-0.213309,-0.081988,-0.012192,0.129749,-0.104663,0.471923,-0.260094,0.339503,0.332728,0.479461,0.216361,-0.232200,0.044481,-0.269311,-0.154042,-1234933695775.932400,0.330317,0.120930,-0.109821,-0.415860,0.457396,-0.455046,-0.131123,0.079272,-159065.083063
-5.669739,-15.622311,0.048265,0.204794,-0.454802,-24.378195,0.070116,0.101093,-0.225578,-15.886042,-11.293178,0.449156,-33.991994,0.488556,0.306482,0.450896,-35.403844,-28.100011,-15.253360,-22.360893,0.208182,0.441984,0.042772,-0.493072,-25.915574,-0.423612,-12.332131,-0.083056,-29.493077,-0.437040,0.151540,-0.237754,-0.128285,-19.005935,-0.422788,0.407529,-9.230749,-0.236015,-0.289514,-0.007065,0.111774,-3.587498,0.238639,-9.528642,0.202445,-3.701801,0.127338,-2.946389,0.170858,-2.111616,-0.062853,0.225211,-0.436003,0.065325,0.264916,-0.348903,-0.392392,-5.928136,-11.634814,-43.636495,-0.164785,0.375179,-0.433897,0.171926,-6.446062,-0.111347,-10.437869,-66.867158,0.163594,-27.044189,-10.520366,0.104755,-45.263705,0.037889,-4.686105,0.383572,-22.567023,-17.135415,-8.290103,-0.483215,0.440001,-28.716032,0.235954,-0.129444,-10.642357,-2.675824
-9.459766,-24.345028,0.496796,0.005814,0.252159,-38.888832,-0.353786,0.317896,-0.200888,-25.533675,-18.266981,-0.055193,-52.837046,-0.264122,-0.039842,0.378384,-55.967413,-43.757174,-24.233498,-34.384684,0.376095,-0.241722,0.466308,0.406400,-40.708513,0.304285,-19.615309,-0.245811,-46.371806,-0.362300,-0.421964,0.204398,0.295129,-30.470551,-0.152058,0.385678,-14.219745,0.418271,0.093768,-0.274834,-0.054704,-5.332808,-0.179861,-14.906463,0.099414,-6.376358,-0.178640,-5.574400,-0.255638,-3.959654,0.232231,-0.461028,0.118244,-0.170156,0.203696,0.248100,-0.452391,-9.982764,-18.705819,-69.030798,-0.439085,0.394803,-0.056749,-0.467223,-10.327905,0.449431,-16.022869,-106.377905,-0.483764,-43.521409,-17.310389,0.355342,-71.805860,0.313318,-7.074589,0.191916,-35.395710,-27.363100,-12.899604,-0.204581,-0.473174,-45.823732,-0.495605,0.290155,-16.557366,-4.463062
-0.298486,0.413480,0.332942,0.218680,-0.341884,-0.499420,0.181143,-1209.998270,0.317499,-108907.330740,-0.363704,0.205863,-0.457732,-0.362117,0.427915,0.186575,-0.171926,-712072.618475,-0.392361,-300279.474850,-0.286462,-34.028607,-0.477599,0.084063,0.315607,0.292322,-362190.501994,0.279931,-0.010453,-0.052385,0.130543,-566.799930,0.114307,-0.247368,0.496704,0.396176,-97699.162588,-0.099567,-0.236259,0.438139,-0.064562,-0.449919,-0.281365,-421615.536922,0.323786,0.143056,-0.095752,0.164266,-0.007859,-0.155568,0.467071,0.257897,-0.410459,0.109577,0.129933,0.017594,0.124531,0.375393,0.289636,0.075701,-0.374783,-0.123280,0.239463,-0.307550,-644574.301330,-0.412168,-300085.216597,-0.239769,-0.429228,0.288751,-573668.562814,-0.067888,-0.138386,-0.243309,-116139.949206,-509.185842,-163840.126535,0.082507,-8752.727251,-755.431352,0.406339,0.111988,0.176351,0.223777,0.073351,-192.914138
-0.229362,-0.496490,-0.412626,-0.354274,-0.152242,-0.153127,0.329096,-6022.540113,-0.042711,-542263.128393,0.205039,-0.189108,0.171438,0.499390,0.249657,0.231651,-0.211356,-3545505.369580,-0.344752,-1495128.805735,0.103046,-171.685158,-0.146077,-0.116626,-0.200949,-0.109180,-1803393.518292,-0.339991,-0.029160,0.352626,0.425810,-2822.930085,-0.233024,0.151601,0.350856,0.318415,-486457.342573,0.274834,-0.288079,-0.031785,0.340052,-0.063463,0.245964,-2099278.215455,0.236412,-0.371090,-0.453032,-0.344966,-0.340022,-0.202170,-0.476959,0.346583,-0.426084,0.143757,0.478454,-0.136860,-0.012253,-0.452635,-0.179495,-0.438169,-0.022843,-0.379482,0.391781,0.040635,-3209419.584507,-0.118152,-1494160.960432,0.126637,-0.192404,-0.442320,-2856373.025504,0.489257,0.055895,0.007736,-578278.122142,-2534.807152,-815781.474580,-0.224052,-43581.622461,-3759.677635,-0.461211,0.266228,-0.275903,-0.053087,0.229240,-960.563396
-0.245323,-0.365413,0.111042,-0.073046,-0.407132,-0.143300,0.499725,-216.338952,0.036637,-19495.266851,-0.254936,0.434172,-0.111255,0.214011,0.075823,0.462279,-0.101428,-127466.283030,-0.127857,-53752.213252,0.453154,-5.994634,0.419645,-0.392911,0.393765,-0.325373,-64834.835023,-0.061480,-0.042589,-0.177541,-0.164144,-101.292485,-0.156972,-0.275079,0.337916,-0.175130,-17488.432354,-0.278344,0.240562,-0.322779,-0.040208,0.095752,0.039933,-75471.963877,0.246757,-0.078509,0.286096,-0.346126,-0.024949,0.036882,0.211722,0.166128,-0.475005,0.141469,0.486175,-0.141804,-0.237663,0.018845,0.094440,-0.103015,-0.020341,-0.115680,0.340846,0.351985,-115383.342364,-0.142232,-53717.292895,0.230216,0.182485,-0.439024,-102690.300472,-0.363491,0.110248,-0.159413,-20789.607827,-91.066964,-29328.871920,-0.384457,-1567.132158,-135.388004,-0.244163,-0.150105,-0.096850,0.402127,0.020188,-34.884839
-1.823886,-4.429176,0.452086,-0.381710,0.305445,-6.520224,0.026719,0.356838,-0.448149,-4.856569,-3.359326,-0.059771,-9.227313,-0.331599,0.324061,-0.151784,-10.239446,-7.358511,-3.926807,-5.661140,0.174673,0.222404,0.361751,-0.284936,-7.376529,0.283929,-3.831975,0.475219,-8.404136,-0.208396,-0.243156,0.076617,-0.081591,-4.905229,0.376003,-0.416959,-2.620561,0.073016,0.292535,0.233787,0.224235,-0.638540,-0.103168,-3.011735,-0.045122,-0.948149,-0.457152,-0.623207,-0.082873,-1.047958,-0.338679,0.485168,0.161672,0.187002,0.498047,-0.202963,0.407682,-1.526091,-2.813972,-12.082678,0.218772,-0.084613,0.189199,0.338160,-1.928827,-0.101428,-2.770813,-18.185152,0.442045,-7.173240,-2.634376,0.195090,-13.013091,0.095294,-0.896833,0.395444,-5.865496,-5.218398,-2.447388,-0.048082,-0.020402,-7.609932,-0.140492,0.072375,-2.969541,-0.790092
-0.216117,-0.400754,-0.125843,-0.227195,0.153645,-0.069445,0.182150,0.112354,-0.002121,0.495392,0.244499,-0.278466,-0.106098,-144890.832996,0.096026,0.430876,0.186728,-0.162343,0.385098,0.212485,0.211692,-0.267663,0.158498,0.121693,-0.357814,-0.022294,-0.228172,0.363308,-0.037736,-0.051347,-0.075457,-2531364020755.507300,0.064318,-0.121540,-0.179952,-0.315699,-0.028367,0.237938,0.451048,0.268700,-0.313776,0.239158,0.009507,0.203360,-102846.089774,0.464446,0.421903,-0.188131,0.399380,-0.379696,0.009384,-0.409116,-0.326044,0.416349,0.272912,0.151296,-0.121693,-0.431089,-0.196615,0.284906,-0.002609,-0.069506,0.316889,0.155629,-0.294214,-0.256829,-0.185354,-0.383969,0.090411,0.017777,-0.131489,-0.351375,0.497925,0.037675,0.030747,-0.067583,-2446912731161.100100,-0.012284,0.369503,-0.465850,0.028794,-0.291772,0.128681,-0.275170,-0.476073,-60044.847356
-11.068133,-30.425261,0.228874,-0.376705,-0.337397,-48.449555,0.447478,0.458831,0.430265,-31.782178,-23.121953,-0.302637,-66.494021,-0.236320,-0.360286,0.039018,-70.652335,-55.199090,-31.169172,-43.834308,0.444456,0.313990,-0.222678,-0.493286,-50.829545,-0.380001,-24.185373,-0.139760,-58.484161,0.182119,-0.023392,-0.001846,0.162435,-38.009192,-0.355617,0.127583,-17.158802,-0.297021,-0.151906,0.284204,0.154988,-6.277749,-0.078143,-19.153923,0.403958,-8.221639,0.121387,-6.234519,-0.383419,-5.082564,-0.356594,0.397366,-0.305902,-0.315119,0.270318,0.247490,-0.195242,-12.748972,-24.144420,-87.283999,-0.033769,0.333247,0.137776,0.265374,-12.267965,0.190573,-19.639027,-133.576302,-0.374691,-54.453878,-21.742911,0.009140,-90.291335,-0.307825,-9.453928,-0.352229,-44.137877,-34.630183,-16.673128,-0.201498,0.184194,-58.063719,-0.449583,-0.035264,-20.679047,-5.226490
-11.391491,-30.091791,-0.067858,-0.368862,0.441343,-47.042476,0.133900,0.003616,0.085070,-30.930172,-22.844557,-0.344111,-65.315275,-0.254631,-0.299341,-0.086444,-69.283593,-54.019374,-30.186436,-43.101283,0.368648,0.196982,-0.241905,-0.352351,-49.393624,0.156331,-24.087830,0.418485,-57.300774,0.174093,-0.386593,-0.296258,-0.194937,-37.375510,-0.292810,0.433226,-17.379212,0.078295,0.091357,-0.324641,-0.177328,-6.806797,0.032853,-18.627075,0.025010,-8.354097,-0.340815,-6.103283,-0.294946,-4.792428,-0.100360,0.170888,-0.008591,0.346889,-0.448180,-0.032182,-0.163991,-12.261274,-22.772713,-84.948478,0.268151,-0.038194,-0.103229,0.079272,-12.463919,-0.242302,-19.733053,-129.953411,-0.203299,-53.220242,-20.982803,-0.062578,-88.259547,-0.019333,-8.750402,0.117939,-43.542259,-34.084606,-16.625548,0.489349,-0.083972,-57.028990,0.165090,-0.407804,-20.308799,-5.101158
-15.710239,-43.562959,-23.489573,-30.891974,-23.994929,-39.080042,-23.777821,-8.095277,-23.355261,-39.214659,-11.565437,-27.016681,-11.784987,-27.258021,-11.861650,-35.312480,-3.989814
-2.653429,-6.916299,-3.762371,-5.072125,-4.402497,-6.377149,-4.029561,-0.860384,-3.546514,-6.069980,-1.919601,-4.562669,-1.912765,-4.892147,-1.989976,-6.227628,-0.918481
-0.196402,0.302789,0.084277,-0.431059,-0.014267,-0.385189,-0.435087,0.297601,0.204550,-0.444517,-0.260521,-0.369106,0.093463,-0.461303,0.173513,0.447691,0.099170
-0.378048,-0.213248,-0.053362,0.181234,-0.239067,-0.050920,-0.382138,-0.207053,0.410215,-0.176321,0.041856,-0.199576,-0.400235,0.042497,0.034165,0.257439,0.365108
-0.470061,-0.414975,-0.337764,0.018937,0.277642,-0.202811,-0.142170,0.050768,0.414579,0.233818,0.322993,-0.327998,-0.439909,-0.121479,-0.425871,0.151509,-0.018601
-15.445019,-42.467641,-23.722775,-30.596160,-23.586632,-38.312467,-23.583915,-7.844103,-23.257306,-38.254817,-11.316701,-26.993462,-12.072217,-26.898458,-12.088697,-34.442701,-3.938722
0.335322,0.209494,-0.186697,-0.473846,-0.013718,-0.455809,0.159383,0.432585,-0.204398,-0.377743,0.274438,-0.408078,-0.392117,-0.374599,-0.352290,-0.333277,0.051347
-339.612040,-533.534423,-290.538516,-290.553165,-145.887448,-242.940928,-436.182015,-193.723142,-291.259180,-194.488974,-193.915043,-484.525292,-290.919600,-484.966834,-97.213320,-388.066375,-48.339478
-0.314051,-0.174306,0.063280,-0.020981,0.349727,-0.232719,0.269890,-0.121235,0.459410,-0.467009,-0.389798,0.214927,0.050981,-0.279962,0.054460,0.138234,-0.208762
-2121.549281,-3330.528254,-1816.144867,-1815.106128,-905.795911,-1509.528094,-2727.150092,-1212.866556,-1816.774921,-1205.670704,-1211.682157,-3029.809197,-1818.646943,-3030.337960,-604.588247,-2420.779884,-302.284170
-13.621995,-36.949968,-19.959413,-27.253191,-20.639823,-33.795694,-20.889190,-6.582986,-20.526295,-33.797464,-10.367894,-23.353319,-10.644026,-24.312027,-9.973443,-30.871895,-3.488498
-106838.387948,-316628.932283,-131011.933915,-228892.015737,-82664.899539,-193388.602744,-203532.659374,-145041.185117,-232777.773681,-115796.445150,-150113.840098,-129825.904579,5071.539759,-198460.421519,-237849.800256,-153999.138006,-24173.470144
-18.439064,-51.173761,-27.267021,-36.527028,-28.132587,-46.067867,-27.292412,-8.827850,-27.715887,-46.270967,-13.790551,-31.862737,-14.255745,-32.093640,-13.981505,-41.188603,-4.168381
314723.682672,429167.932789,371945.566008,257501.397132,200278.351498,371945.969250,57222.425208,171666.860298,57222.285952,343334.439627,28611.049490,257500.685196,228890.038321,28610.780500,28611.326354,228889.867540,28611.533087
-5099.353978,-2549.914934,-7648.303414,-2549.691997,-2549.638467,-20395.155086,-15296.782812,-15296.362694,-15296.248341,-15297.108414,-12747.061747,-22944.929131,-2549.417910,-17846.064869,-12747.189833,-25494.275613,-2548.983815
-61793.604439,-191828.412266,-74809.026051,-138184.535229,-48777.421330,-104122.408007,-113854.107837,-78092.183729,-131736.003117,-60210.778363,-82957.769277,-63494.355944,4866.239789,-108988.584088,-136601.771776,-76508.969121,-13015.102281
-2.848539,-8.208070,-4.360724,-6.131676,-4.236880,-7.329521,-4.713183,-1.725098,-4.834646,-7.161151,-2.015158,-5.280381,-2.176875,-4.865207,-2.534156,-6.557055,-1.155275
-2827.380563,-4417.036802,-2409.582259,-2398.751675,-1188.447281,-1981.157235,-3630.637676,-1616.716082,-2409.499615,-1573.765369,-1612.057038,-4031.712214,-2425.663244,-4032.023595,-797.550628,-3207.198212,-401.231968
-11.431052,-32.435749,-18.141932,-24.076909,-18.022696,-30.233421,-17.697735,-5.754475,-17.561104,-29.746376,-8.518161,-20.921793,-8.756358,-20.718570,-8.602545,-26.776293,-2.641566
-2963.060706,-4644.779895,-2533.205025,-2528.695928,-1260.336662,-2099.812413,-3807.120477,-1693.198465,-2533.868558,-1675.344792,-1691.186081,-4229.651126,-2540.261709,-4229.281882,-842.133159,-3376.209960,-421.843845
-0.204489,-0.063433,-0.241997,0.349696,-0.418699,-0.403165,-0.003281,-0.024064,-0.184713,-0.173299,-0.383114,-0.406186,-0.239494,0.190878,0.081774,0.007553,0.240501
-22607.360533,-9887.839064,-34760.386041,-10832.000821,-11397.515765,-94772.278306,-70087.251427,-71031.776201,-70654.153712,-71031.813922,-59066.903807,-105792.191464,-10831.381997,-81863.032172,-59444.600792,-118133.890303,-11775.210431
-16331.872095,-8166.124385,-24497.584282,-8166.083338,-8165.468359,-65326.464744,-48994.397254,-48994.346960,-48995.056180,-48995.268772,-40829.244380,-73491.844157,-8166.193387,-57160.868711,-40828.535527,-81657.780991,-8166.127834
-0.469909,0.185568,-0.197439,0.472045,0.153890,-0.279626,0.392575,-0.388302,-0.351894,-0.044542,-0.144856,-0.096667,0.161946,-0.243461,0.119709,-0.118122,0.423704
-5.339971,-13.837783,-7.601199,-9.883485,-7.600619,-13.226533,-7.245963,-2.357712,-7.328577,-12.760027,-3.788476,-8.446465,-3.945799,-9.040874,-4.112857,-11.128482,-1.707063
-0.375729,-0.219626,0.364132,-0.176595,-0.253319,0.009293,-0.317438,-0.120441,0.316736,0.174490,-0.076800,0.265801,-0.314905,0.243950,-0.439299,-0.206503,-0.318506
-2128.696078,-3332.846209,-1817.495509,-1812.095695,-900.417443,-1501.050191,-2734.904518,-1217.682244,-1817.259143,-1195.805972,-1214.273576,-3037.461190,-1825.514387,-3037.253023,-603.048207,-2421.381403,-303.113498
-70107.244526,-192795.851869,-87634.834387,-140215.451805,-52580.871774,-140215.575954,-140215.257707,-105161.871527,-157741.664213,-87634.046277,-105161.608336,-105161.347189,-0.463317,-140215.393423,-157741.676481,-122688.696228,-17526.972365
-44.719743,-121.431572,-66.087739,-88.012821,-66.292488,-110.279618,-65.879847,-22.214504,-66.323037,-110.450797,-32.961813,-77.854885,-32.830919,-77.770471,-32.700910,-99.205578,-10.800976
-0.447813,0.206839,-0.092181,0.040086,0.149709,-0.451598,-0.440001,-0.033708,0.244102,-0.254021,-0.054399,-0.120716,-0.335078,-0.155660,0.395901,0.035112,0.070391
0.121113,-0.207205,0.361293,-0.005203,-0.375332,0.005448,-0.045946,0.247734,0.288354,-0.098498,-0.478820,-0.260033,0.305658,0.120350,-0.089068,-0.190573,0.110645
-88406.638702,196940.915051,-89964.020083,197750.339266,-30840.080011,79802.843437,400960.065656,168743.397746,456832.982148,-62401.942551,314010.662982,83482.207426,-229885.785608,430158.559510,484448.369539,168553.910810,28257.542849
0.472564,-0.284051,-0.442259,0.271233,0.277642,-0.456511,-0.040086,-0.199881,0.081439,0.012741,-0.134907,-0.202689,0.404477,0.308863,-0.430692,-0.289636,0.009262
-4.261485,-12.466309,-7.296162,-8.948931,-6.798314,-11.128633,-6.869697,-2.552134,-7.136764,-11.554641,-2.998670,-7.742759,-3.607423,-8.101840,-3.703983,-10.145521,-1.626519
-0.395169,-0.318842,0.456297,-0.434080,-0.371975,0.014298,-0.188742,-0.172658,-0.214225,0.169393,0.426084,-0.245415,-0.232047,-0.311213,-0.084643,0.040910,0.145039
0.121387,-0.172781,0.074725,-0.069018,-0.349513,0.377621,-0.493011,-0.360134,-0.334162,-0.185720,0.045061,0.471282,-0.159444,-0.053728,-0.330348,0.097949,-0.348872
-24550.110487,-7183.526766,-39877.099208,-10575.595019,-12610.825779,-113800.991384,-81792.417887,-85185.126789,-83826.003781,-85179.036081,-70534.859024,-125063.130250,-10579.599163,-95763.344843,-71890.685221,-141067.000162,-13971.108160
0.088702,-0.499695,0.223594,-0.312464,0.390835,0.152364,-0.125690,0.356258,0.056383,-0.285485,0.131062,-0.368252,0.012101,-0.183737,0.165090,-0.387295,0.429624
-0.085711,-0.258843,-0.448088,-0.113086,-0.447905,-0.466948,-0.256584,0.329615,0.165426,0.303949,0.057970,-0.320032,0.421903,-0.107746,0.214591,-0.173879,0.230857
-0.133168,-0.100330,0.078112,0.165242,-0.388180,-0.311975,-0.495880,-0.272942,0.139058,0.192953,-0.105976,0.412992,-0.397671,0.217826,-0.107959,-0.493652,-0.499237
-0.082018,-0.317164,0.158864,0.302118,-0.165304,-0.398984,-0.415738,0.237968,-0.440397,0.065294,-0.349849,0.166585,-0.338832,0.209037,-0.480010,-0.105518,0.460814
-12.031802,-32.592556,-18.109617,-24.286648,-17.607801,-29.528012,-17.611464,-5.861607,-17.927056,-30.152909,-9.240186,-21.172848,-9.289382,-21.018058,-9.244214,-27.181295,-2.595245
0.078936,0.407071,-0.337733,-0.373623,0.487854,-0.295770,0.190481,0.090136,-0.447081,0.159841,0.405332,-0.472411,0.426634,0.256767,0.009232,-0.480468,0.240928
-3556.783472,-5574.430289,-3040.879275,-3034.538399,-1511.252057,-2518.234379,-4570.422476,-2033.371820,-3040.644526,-2008.047229,-2030.313416,-5077.170106,-3050.376489,-5077.058042,-1010.222632,-4051.014273,-506.885681
-106620.949801,-145392.484181,-126006.571616,-87235.805905,-67849.391677,-126006.620903,-19385.944808,-58156.483797,-19385.529176,-116314.343810,-9693.014893,-87235.401871,-77542.626960,-9692.634938,-9692.906125,-77543.140708,-9692.420118
-1.534129,-4.259052,-2.083040,-2.544362,-2.050904,-3.443198,-2.181737,-0.520086,-1.665272,-3.136914,-0.831102,-2.327556,-0.859515,-2.171637,-1.200254,-3.551537,-0.524997
-0.468688,-0.387753,0.430021,-0.410642,-0.119404,0.231590,-0.432340,-0.402860,-0.258934,0.037492,0.093127,-0.309198,0.313501,-0.133106,0.393399,-0.044237,0.049394
-6.529524,-16.643241,-9.616477,-11.893103,-8.912934,-14.834849,-9.559865,-2.732466,-9.286480,-15.424741,-4.779330,-10.678020,-4.368367,-10.867113,-4.452232,-13.432841,-1.930055
0.304804,-0.371883,0.475646,0.450529,0.110248,-0.312738,-0.085437,-0.356319,-0.171957,-0.032517,0.487976,0.005814,-0.393674,-0.255699,0.402921,-0.474761,-0.072466
-3.701995,-9.591765,-5.260358,-7.472702,-5.133127,-8.620012,-5.456318,-1.444514,-5.740292,-8.974973,-2.721208,-5.964556,-2.831990,-6.259059,-2.894920,-8.516785,-1.322548
-211104.949230,-632605.430323,-258096.885255,-456921.161405,-164113.685375,-375930.331626,-399070.213671,-281947.185978,-457631.072530,-223385.932393,-293517.088791,-247237.505279,11570.305825,-387499.693194,-469201.169715,-294227.876438,-46991.696196
-7177.280062,-3588.707133,-10765.487317,-3588.888963,-3588.563025,-28708.445650,-21531.031658,-21531.231554,-21530.626555,-21531.400169,-17942.837495,-32296.169981,-3588.351104,-25119.487273,-17942.107370,-35885.039427,-3588.640054
0.026780,-0.065477,-0.212088,-0.275536,-0.353694,-0.272149,-0.167745,-0.067186,0.057939,0.116932,-0.472686,-0.138081,0.474212,-0.189047,-0.123951,0.166189,-0.162954
-0.118152,0.047533,-0.298425,-0.457121,0.021439,-0.353206,0.271508,0.486175,-0.493011,-0.478668,-0.414518,0.443113,0.041185,-0.001114,-0.036973,0.003677,-0.353725
0.119373,-0.058794,-0.003739,0.063555,-0.432798,-0.472137,-0.008225,0.241752,-0.158284,-0.492401,-0.051805,-0.492553,0.314081,0.030778,0.421140,-0.069079,-0.127064
-0.306726,-0.186544,0.117969,0.008988,0.165975,-0.066546,-0.428007,0.311640,0.471038,-0.001602,-0.279504,-0.002274,-0.442167,-0.342586,-0.145772,-0.164602,0.393643
-0.472381,0.282586,-0.102893,-0.154683,0.412748,0.182943,-0.456725,-0.158467,0.145222,-0.467742,-0.094226,-0.344050,0.187765,-0.417325,-0.260216,-0.452879,0.238884
-32.951360,-89.662252,-48.699685,-64.888545,-49.052632,-81.705384,-48.653267,-15.995967,-49.292446,-81.055615,-24.327938,-56.725494,-24.351559,-57.007333,-24.213097,-73.077689,-8.187023
-20.509221,-57.576439,-31.170056,-41.583508,-31.211592,-52.261525,-31.293351,-10.825559,-31.066355,-52.294180,-15.588484,-36.157171,-15.596724,-36.454116,-15.750202,-46.619422,-5.070873
-30.952952,-86.021415,-46.914497,-62.334278,-46.933114,-78.431935,-47.504451,-15.738623,-47.542812,-78.113017,-23.713062,-54.891989,-23.614121,-54.631605,-23.875726,-70.421545,-8.030884
-0.210685,0.123127,-0.021653,0.007889,-0.203055,-0.265038,0.364162,-0.383023,-0.162404,0.203055,0.193350,0.369137,0.163228,-0.347987,-0.076495,-0.386074,-0.214316
0.318690,-0.398831,-0.258477,-0.205130,-0.001572,-0.484497,-0.472808,-0.198904,0.173421,-0.427122,0.183645,-0.069933,0.006211,0.370693,0.369900,-0.173177,0.137532
0.123554,-0.480255,0.061998,-0.495239,0.150166,-0.088092,-0.497314,0.261101,-0.060472,0.145772,0.009445,-0.350429,-0.251457,0.015580,0.009964,0.153706,0.126240
0.271935,-0.433317,0.305109,-0.418058,0.473022,-0.169637,-0.290918,0.162160,-0.453276,-0.462218,0.036058,-0.124622,-0.011460,0.047014,0.288507,-0.483917,0.237754
-4743.750440,-7432.297582,-4053.586881,-4044.266629,-2012.880806,-3353.733247,-6095.867558,-2712.174914,-4054.114882,-2673.452427,-2707.221475,-6771.364836,-4068.980601,-6770.687508,-1346.513467,-5400.226130,-676.118742
-0.092700,0.048936,0.163228,-0.285424,-0.306421,0.178091,0.084796,-0.087085,-0.301263,-0.164907,-0.287591,-0.313227,-0.327784,0.075182,-0.290185,0.089801,-0.377041
-4338.372538,-6806.767673,-3712.530932,-3708.528417,-1849.287931,-3083.350345,-5575.768592,-2479.470350,-3712.617940,-2462.075175,-2477.211241,-6195.327852,-3719.814102,-6194.745253,-1235.377111,-4948.670808,-618.598766
-18.903295,-52.454873,-28.415788,-38.539141,-28.621392,-47.669054,-28.947207,-9.780278,-28.835540,-48.012082,-14.475854,-33.229868,-14.379629,-33.247263,-14.118513,-42.926266,-4.915019
-7823.442070,-3912.347877,-11735.561714,-3912.368782,-3911.941768,-31294.836258,-23470.763966,-23470.924341,-23471.501965,-23471.208956,-19559.478118,-35207.053135,-3911.445933,-27383.374379,-19559.204306,-39118.535889,-3912.058684
-12.144969,-31.744069,-17.022051,-23.565291,-17.052936,-28.666410,-17.819256,-6.151489,-17.348569,-28.863163,-9.167410,-20.533715,-8.425414,-20.255813,-8.860363,-26.224512,-3.201550
-2533.449223,-3960.927053,-2160.179377,-2151.338927,-1066.983414,-1778.812236,-3253.771988,-1449.296567,-2159.932726,-1414.388730,-1444.256008,-3614.007287,-2173.295989,-3613.424627,-716.283838,-2876.256101,-359.759927
0.441374,-0.487548,0.279138,-0.057329,0.037828,0.087695,-0.300226,0.041643,-0.149709,0.087268,0.192526,-0.327815,-0.460051,-0.460601,-0.248680,0.448576,0.364315
-34.629079,-95.049011,-51.831547,-69.872877,-51.655119,-86.726610,-52.553767,-17.471076,-51.814945,-86.358312,-25.766896,-60.422023,-25.822043,-60.462063,-26.360390,-77.610971,-8.778485
-0.190390,-0.299127,0.235435,-0.477172,0.334284,-0.420499,-0.082080,-0.003311,0.006424,0.328761,-0.497955,0.353725,-0.277245,-0.432768,0.481017,-0.193197,0.012772
-5304.119679,-2500.766398,-8043.043622,-2598.897326,-2658.678380,-21662.889979,-16148.491577,-16247.094249,-16205.691155,-16240.802281,-13525.713108,-24290.866382,-2603.542917,-18849.228470,-13563.848143,-27048.872660,-2701.378499
-512.792592,-805.247869,-438.950990,-439.338636,-219.492379,-366.450066,-658.544584,-292.815655,-438.949006,-293.326229,-293.367918,-732.086219,-439.378493,-732.469776,-146.468918,-585.558111,-73.668974
536418.644131,957978.916375,654672.559113,643569.485054,357620.109237,860980.192224,508435.669123,534912.690927,552781.068816,667148.044200,372863.852951,667926.729043,252456.205427,493350.858142,507876.137661,697188.338121,89247.156036
-24.703831,-66.821279,-36.881357,-48.696383,-36.243245,-60.925576,-36.317710,-11.757942,-36.815467,-60.894112,-18.597460,-43.130158,-18.376750,-43.152528,-18.707143,-55.078886,-6.165898
-13310.661721,-6439.423233,-20095.108005,-6582.784189,-6669.140025,-53903.233706,-40276.487241,-40420.452435,-40362.488997,-40420.194811,-33664.102609,-60515.824320,-6583.370155,-47004.302413,-33721.826957,-67329.234678,-6727.061167
-13388.914300,-6676.785257,-20094.206719,-6688.112348,-6695.969267,-53609.018336,-40194.235765,-40205.858672,-40201.710043,-40206.781643,-33504.216558,-60299.681483,-6688.424125,-46895.197696,-33508.861112,-67007.686740,-6700.615408
0.439360,-0.356746,0.362392,0.036576,-0.044664,0.039842,-0.268853,0.300836,-0.061083,-0.197562,-0.377377,0.226066,-0.263237,0.025956,0.243767,-0.432249,0.058123
-29.652338,-81.884192,-44.509186,-59.106626,-44.326197,-74.663294,-44.807870,-15.007258,-44.635746,-74.027593,-22.056551,-52.313567,-22.626148,-51.789717,-22.560503,-66.598925,-7.765425
0.095843,-0.047807,-0.013565,0.482574,-0.122822,0.010147,-0.132160,-0.091113,0.118549,-0.470214,-0.489349,-0.300104,0.132496,-0.321131,0.414884,0.257866,0.197806
0.280236,-0.010880,-0.476073,-0.467040,-0.442808,-0.227409,-0.300867,-0.260369,0.185934,0.341548,0.488952,0.025101,0.189962,0.472625,0.187094,-0.471374,-0.360195
-20.376587,-57.308180,-30.821595,-42.006677,-31.111094,-51.718569,-31.131450,-10.040653,-30.928532,-52.033733,-15.371467,-36.546708,-15.090941,-36.150944,-15.461802,-46.778392,-4.802340
